Language model created by QuickLM on Fri Apr 17 07:28:16 EDT 2020
Copyright (c) 1996-2010 Carnegie Mellon University and Alexander I. Rudnicky

The model is in standard ARPA format, designed by Doug Paul while he was at MITRE.

The code that was used to produce this language model is available in Open Source.
Please visit http://www.speech.cs.cmu.edu/tools/ for more information

The (fixed) discount mass is 0.5. The backoffs are computed using the ratio method.
This model based on a corpus of 26 sentences and 30 words

\data\
ngram 1=30
ngram 2=51
ngram 3=46

\1-grams:
-0.9274 </s> -0.3010
-0.9274 <s> -0.2258
-2.3424 BEST -0.2991
-2.3424 BIRTHDAY -0.2464
-2.0414 CAPTURE -0.2808
-2.3424 DATE -0.2464
-2.0414 DID -0.2419
-1.6435 DOWN -0.2464
-2.3424 HELLO -0.2951
-2.3424 HEY -0.2951
-2.3424 HOW -0.2971
-2.3424 IS -0.2991
-1.8653 LILY -0.2464
-2.0414 MICROPHONE -0.2808
-2.3424 OKEY -0.2951
-2.0414 OUTPUT -0.2808
-2.3424 PI -0.2464
-2.0414 PLAYBACK -0.2808
-2.0414 PROGRAM -0.2464
-2.3424 RASPBERRY -0.2991
-2.3424 SISTER -0.2464
-2.3424 STOP -0.2464
-2.3424 THE -0.2464
-2.3424 TIME -0.2464
-1.6435 UP -0.2464
-1.3424 VOLUME -0.2808
-2.0414 WEATHER -0.2464
-1.7404 WHAT -0.2910
-2.0414 WHO -0.2931
-2.3424 YOU -0.2464

\2-grams:
-1.7160 <s> BEST 0.0000
-1.7160 <s> BIRTHDAY 0.0000
-1.4150 <s> CAPTURE 0.0000
-1.7160 <s> DID -0.1761
-1.7160 <s> HELLO 0.0000
-1.7160 <s> HEY 0.0000
-1.7160 <s> HOW 0.0000
-1.4150 <s> MICROPHONE 0.0000
-1.7160 <s> OKEY 0.0000
-1.4150 <s> OUTPUT 0.0000
-1.4150 <s> PLAYBACK 0.0000
-1.7160 <s> RASPBERRY 0.0000
-1.7160 <s> STOP 0.0000
-1.4150 <s> VOLUME 0.0000
-1.1139 <s> WHAT 0.0000
-1.4150 <s> WHO 0.0000
-1.7160 <s> YOU 0.0000
-0.3010 BEST SISTER 0.0000
-0.3010 BIRTHDAY </s> -0.3010
-0.3010 CAPTURE VOLUME 0.0000
-0.3010 DATE </s> -0.3010
-0.6021 DID </s> -0.3010
-0.6021 DID PROGRAM 0.0000
-0.3010 DOWN </s> -0.3010
-0.3010 HELLO LILY 0.0000
-0.3010 HEY LILY 0.0000
-0.3010 HOW WEATHER 0.0000
-0.3010 IS THE 0.0000
-0.3010 LILY </s> -0.3010
-0.3010 MICROPHONE VOLUME 0.0000
-0.3010 OKEY LILY 0.0000
-0.3010 OUTPUT VOLUME 0.0000
-0.3010 PI </s> -0.3010
-0.3010 PLAYBACK VOLUME 0.0000
-0.3010 PROGRAM </s> -0.3010
-0.3010 RASPBERRY PI 0.0000
-0.3010 SISTER </s> -0.3010
-0.3010 STOP </s> -0.3010
-0.3010 THE </s> -0.3010
-0.3010 TIME </s> -0.3010
-0.3010 UP </s> -0.3010
-0.6021 VOLUME DOWN 0.0000
-0.6021 VOLUME UP 0.0000
-0.3010 WEATHER </s> -0.3010
-0.9031 WHAT DATE 0.0000
-0.9031 WHAT IS 0.0000
-0.9031 WHAT TIME 0.0000
-0.9031 WHAT WEATHER 0.0000
-0.6021 WHO DID -0.1761
-0.6021 WHO PROGRAM 0.0000
-0.3010 YOU </s> -0.3010

\3-grams:
-0.3010 <s> BEST SISTER
-0.3010 <s> BIRTHDAY </s>
-0.3010 <s> CAPTURE VOLUME
-0.3010 <s> DID PROGRAM
-0.3010 <s> HELLO LILY
-0.3010 <s> HEY LILY
-0.3010 <s> HOW WEATHER
-0.3010 <s> MICROPHONE VOLUME
-0.3010 <s> OKEY LILY
-0.3010 <s> OUTPUT VOLUME
-0.3010 <s> PLAYBACK VOLUME
-0.3010 <s> RASPBERRY PI
-0.3010 <s> STOP </s>
-0.6021 <s> VOLUME DOWN
-0.6021 <s> VOLUME UP
-0.9031 <s> WHAT DATE
-0.9031 <s> WHAT IS
-0.9031 <s> WHAT TIME
-0.9031 <s> WHAT WEATHER
-0.6021 <s> WHO DID
-0.6021 <s> WHO PROGRAM
-0.3010 <s> YOU </s>
-0.3010 BEST SISTER </s>
-0.6021 CAPTURE VOLUME DOWN
-0.6021 CAPTURE VOLUME UP
-0.3010 DID PROGRAM </s>
-0.3010 HELLO LILY </s>
-0.3010 HEY LILY </s>
-0.3010 HOW WEATHER </s>
-0.3010 IS THE </s>
-0.6021 MICROPHONE VOLUME DOWN
-0.6021 MICROPHONE VOLUME UP
-0.3010 OKEY LILY </s>
-0.6021 OUTPUT VOLUME DOWN
-0.6021 OUTPUT VOLUME UP
-0.6021 PLAYBACK VOLUME DOWN
-0.6021 PLAYBACK VOLUME UP
-0.3010 RASPBERRY PI </s>
-0.3010 VOLUME DOWN </s>
-0.3010 VOLUME UP </s>
-0.3010 WHAT DATE </s>
-0.3010 WHAT IS THE
-0.3010 WHAT TIME </s>
-0.3010 WHAT WEATHER </s>
-0.3010 WHO DID </s>
-0.3010 WHO PROGRAM </s>

\end\
